-1.317212,
0.323753,
0.407927,
0.111940,
0.221006,
-1.262336,
-0.746048,
0.933160,
-0.893942,
0.152243,
-0.169322,
-0.483418,
-0.253614,
0.524663,
-0.057351,
-0.038676,
0.024104,
-0.087718,
-0.314765,
0.329145,
0.123993,
-0.741723,
-0.254076,
-0.870069,
0.758019,
0.749637,
-0.770149,
-0.526984,
-0.239288,
-0.991734,
-0.974770,
0.420213,
0.529901,
-0.755285,
-0.353282,
0.177848,
0.069004,
-0.042230,
-0.781331,
0.510498,
0.343702,
0.025670,
-0.206712,
0.400571,
0.449646,
-0.459431,
-0.027883,
0.702103,
0.316170,
0.515582,
0.324497,
-0.912458,
-0.510167,
-0.661769,
0.340291,
0.487055,
-1.079864,
-0.310708,
0.257041,
0.164213,
-0.750423,
-0.351763,
0.181521,
0.569712,
-1.819106,
0.079563,
-0.500984,
1.018836,
0.103663,
-0.475310,
0.598878,
-0.785036,
-0.663411,
-0.635625,
-1.215147,
-0.347631,
0.187846,
-0.500492,
-0.144828,
-0.755487,
-0.579032,
0.671472,
0.089754,
0.072035,
-0.910778,
0.203467,
-0.169680,
0.753143,
0.107911,
0.139192,
0.442693,
0.204632,
0.016707,
-0.361512,
0.495331,
0.037759,
-1.016512,
-0.348285,
-1.679678,
-0.685469,
0.174422,
-0.315024,
-0.992091,
-0.769898,
-0.180584,
0.682546,
-0.061544,
0.393382,
0.600662,
-0.960263,
0.479813,
0.396507,
0.850068,
0.479433,
-0.087614,
0.095607,
-0.438176,
0.557146,
0.059080,
-0.868454,
-0.024210,
-0.406645,
0.054556,
-0.118971,
0.336628,
0.740040,
-0.619048,
-0.058255,
-0.119505,
0.557687,
0.451548,
0.630951,
-0.782352,
-0.407819,
-0.300124,
-0.791812,
-0.481026,
0.111827,
0.910859,
-0.059327,
-0.201198,
-0.094187,
0.917864,
-0.354846,
0.186525,
0.018212,
0.442232,
-0.284283,
0.113369,
0.130941,
0.298555,
0.579244,
-1.223974,
0.088908,
0.270720,
-0.516849,
0.481241,
-0.757783,
-0.362528,
-0.299263,
0.371970,
-0.486450,
-0.360492,
0.224378,
-1.095003,
0.206830,
-0.815627,
0.070319,
-1.005922,
0.184768,
0.254407,
0.280710,
1.092480,
0.773076,
0.049705,
0.783543,
-0.331368,
0.059238,
0.153297,
0.063775,
0.536767,
0.387145,
-1.090209,
0.169331,
-0.399937,
0.129436,
0.907587,
-0.131395,
1.133289,
-1.091176,
0.312517,
-0.080435,
-0.991329,
-0.284821,
0.122100,
-0.542304,
0.625774,
-0.376955,
-0.484243,
0.001695,
-0.156260,
-1.349124,
-0.031090,
0.128938,
-0.382549,
-0.675498,
-0.879167,
-0.082857,
-1.092912,
0.574243,
0.160613,
-0.457114,
-0.441701,
-0.817570,
-0.677961,
0.083163,
0.318164,
-0.177586,
1.063796,
1.604681,
-1.324541,
1.410089,
0.109036,
0.512534,
0.009984,
-0.744237,
-0.139966,
1.008787,
-0.516319,
-1.368656,
-0.240309,
-0.465093,
0.149258,
-0.108075,
-1.482484,
-0.444971,
-0.921985,
-1.221053,
0.116780,
-1.732013,
-1.693902,
-1.606852,
-1.634848,
-1.279365,
-1.081764,
-1.970915,
-0.822851,
-0.191031,
-0.438716,
-0.715656,
0.094408,
0.440198,
-0.497586,
-0.445160,
0.077249,
-0.954418,
-0.608862,
1.237276,
0.862488,
-0.145518,
-0.533974,
-2.406230,
-1.793584,
-0.512478,
-0.587821,
-0.487457,
0.152046,
-0.806333,
-0.369294,
0.152557,
-0.185994,
-1.579023,
0.004184,
-0.793953,
-0.597969,
-0.260064,
-0.120390,
-0.439298,
-0.832255,
-0.556861,
-1.223164,
-0.779388,
-0.377641,
-0.724859,
-1.343653,
-0.585768,
-0.920619,
-0.470782,
0.061762,
-0.218368,
0.448652,
1.031667,
-0.557649,
-0.962328,
-0.560280,
-0.317524,
0.179742,
-0.587723,
-1.419779,
-0.197085,
-0.681122,
-0.569554,
-0.981500,
0.054602,
-0.126156,
0.939111,
0.021687,
-0.517305,
0.839348,
0.677415,
0.356165,
0.980695,
-0.087274,
-0.222840,
0.088629,
-1.453081,
-0.167242,
0.522270,
-0.027322,
-0.299487,
-0.362772,
0.019126,
0.927803,
-0.193310,
-0.162544,
-0.124500,
-0.123524,
-1.207962,
0.834471,
-0.997513,
1.100854,
-0.230772,
-1.081752,
-0.008399,
0.921709,
1.015030,
1.112692,
1.023039,
0.499467,
0.584203,
0.734770,
-0.134316,
0.688459,
0.182002,
0.428614,
0.423556,
0.820252,
0.501390,
0.778480,
1.231293,
0.889303,
0.407050,
0.599148,
0.836263,
0.678879,
1.503786,
-0.819044,
-2.586563,
-0.383209,
-1.285086,
-0.677995,
-1.117654,
-1.886562,
0.278280,
-0.926173,
0.271448,
-0.044169,
-1.521860,
1.557590,
1.580254,
1.191028,
0.399717,
0.997518,
0.815031,
2.056251,
0.956483,
1.119853,
1.416185,
1.799806,
1.743069,
0.200509,
1.073956,
-0.078010,
-0.115391,
-0.370015,
-0.963929,
-1.351688,
-0.286568,
-0.775225,
-1.193693,
-0.710317,
-0.934135,
-0.488374,
-0.567396,
-0.839765,
-1.695918,
0.033421,
-0.650155,
0.229796,
-0.592539,
-0.826084,
-1.453334,
-0.313395,
-1.348456,
-0.508198,
-0.342612,
-0.570794,
0.376699,
-0.226994,
-0.238670,
-1.260404,
-1.315252,
-1.313104,
0.077723,
-0.389941,
-2.104638,
-0.220022,
-0.652815,
-1.236461,
-0.594481,
-0.799293,
-1.348574,
-1.137908,
-0.924755,
-1.352751,
-0.983274,
-1.706116,
-1.141519,
-0.510578,
-1.418487,
-1.169540,
-1.138996,
-1.456423,
-1.507203,
-1.829469,
-2.088464,
-1.845216,
-1.321692,
-0.746110,
-0.609012,
-0.728742,
-0.465963,
-1.090164,
-0.033735,
0.092392,
0.089807,
-0.339860,
0.331038,
-0.889487,
-0.733569,
0.367741,
-1.328000,
-1.399793,
-1.457893,
-0.324750,
-0.369527,
0.361386,
-0.465196,
-0.168704,
-0.662592,
0.303107,
-0.492609,
-0.253530,
-0.330473,
-0.578311,
-0.713184,
-0.859944,
-1.087119,
-0.257608,
-0.636630,
-0.290952,
-0.695759,
-1.669688,
-0.214942,
-1.602723,
-0.688910,
-0.210111,
0.211015,
-0.193874,
-0.871703,
-0.015279,
-0.732114,
0.023117,
-0.227286,
0.639740,
0.483984,
0.061793,
0.246268,
-0.299113,
0.330839,
-0.488927,
-0.384119,
-0.514660,
-0.999121,
-0.464684,
-0.797633,
-0.399133,
-0.453357,
-0.699678,
-0.610650,
-0.649939,
1.619428,
-0.434130,
1.870599,
1.084771,
0.633604,
0.277200,
0.399944,
1.255172,
0.616428,
0.852436,
0.980254,
0.269914,
1.699023,
0.885750,
0.347924,
0.363874,
-0.091627,
1.034196,
-1.203877,
0.976215,
0.650319,
0.628704,
1.131724,
0.404328,
0.113521,
0.756465,
0.481671,
0.464352,
0.968459,
2.077012,
0.363035,
1.140060,
0.093528,
1.980405,
1.198508,
-0.740350,
1.465764,
0.237743,
0.898434,
1.467366,
0.402124,
0.307935,
-0.574677,
-0.960460,
1.119340,
0.400098,
-0.002331,
-0.573909,
-0.612062,
-0.439830,
0.663762,
-0.142057,
-0.650361,
-0.762412,
-0.038269,
-0.481986,
-0.748764,
0.304081,
0.414368,
1.289592,
2.072793,
0.055250,
-0.606905,
0.453980,
0.162080,
-0.096172,
-0.717953,
0.715333,
1.195764,
0.756427,
0.191488,
-0.329340,
1.730356,
0.918399,
0.136917,
-0.020731,
0.735886,
-0.079853,
1.404086,
1.513372,
1.246638,
0.985131,
1.284169,
1.605745,
1.475547,
1.348718,
1.124938,
0.482530,
0.382637,
0.750429,
-0.668650,
1.066716,
0.506731,
1.064361,
-0.990408,
0.780610,
-0.575224,
1.354178,
-0.094720,
-0.647679,
-1.064086,
0.108758,
-1.179654,
0.049215,
-0.651050,
-0.312636,
0.728091,
0.131332,
0.360533,
0.050168,
0.088254,
0.133045,
-0.301000,
-0.425743,
-0.401703,
-0.204594,
-0.747615,
0.624898,
-0.254031,
-1.765115,
-0.346796,
-0.500290,
-0.260874,
-0.832748,
-0.486755,
0.461163,
-0.975260,
-0.676508,
-0.473134,
-0.509924,
-0.280933,
0.273416,
0.856177,
-0.067973,
-0.165807,
-0.687119,
-0.608752,
-0.712418,
-1.511133,
-1.569894,
-1.756689,
-2.272800,
-1.388953,
-2.152625,
-1.089533,
-0.852898,
-0.911767,
-1.546989,
-0.861696,
0.187740,
1.183770,
0.533125,
0.673487,
-1.192827,
-0.659573,
-0.300939,
-0.462302,
1.216002,
-1.201850,
-0.149729,
0.830038,
0.108668,
1.046519,
0.245574,
1.080356,
0.872039,
0.495721,
0.746790,
-0.103841,
0.994468,
0.868269,
1.071307,
0.603229,
0.469293,
1.766946,
-0.815160,
-1.198048,
-0.441595,
-1.588340,
-0.799369,
-1.119326,
-0.773147,
-0.598195,
-0.555453,
-0.579274,
-0.164035,
0.406581,
-0.487497,
-0.489178,
-1.354182,
-0.920136,
-0.272040,
-0.459138,
-0.346376,
-1.099776,
0.198412,
1.135899,
-0.576434,
-0.048924,
-1.261664,
0.694320,
0.124417,
0.471652,
0.887273,
-0.455175,
-0.817318,
-0.478731,
0.656347,
-0.272106,
-0.422940,
0.673868,
-0.977817,
-0.005630,
-1.295333,
-0.226641,
-1.055080,
1.234309,
-0.583259,
-0.700363,
1.160112,
0.591423,
0.330837,
-0.747257,
-0.222197,
0.042406,
-0.127811,
-0.333129,
-1.098887,
1.132436,
-0.206653,
0.254534,
-0.405127,
-0.606673,
-0.534735,
0.166782,
-0.352804,
-0.178110,
0.089901,
-0.120593,
-0.210260,
0.266251,
0.122803,
-0.664194,
-1.255317,
-0.001477,
0.801293,
0.985116,
0.492715,
0.800054,
0.636619,
1.539773,
-0.011484,
0.000880,
0.375913,
0.897771,
0.403689,
1.001801,
-0.218323,
0.361882,
0.417901,
0.750233,
-1.354462,
0.384563,
1.164205,
1.264886,
0.192466,
-0.287997,
0.051599,
-0.367838,
-1.044957,
-0.296338,
0.356148,
0.700145,
1.158128,
0.779226,
1.048845,
0.793437,
0.919116,
0.534754,
0.885078,
0.467194,
0.288771,
0.111653,
0.590157,
0.697156,
0.245249,
1.044802,
-0.574795,
-0.758963,
0.577677,
0.859645,
-0.657833,
0.538799,
-1.129046,
0.405437,
0.369328,
0.646845,
1.213069,
0.852736,
0.362236,
-0.313135,
-0.289032,
0.120392,
0.648076,
-0.337893,
0.636934,
0.219526,
0.815832,
0.993330,
0.612579,
-0.215613,
-0.825875,
0.457560,
1.748532,
-0.154356,
1.265697,
1.259317,
1.262665,
1.775097,
-0.558936,
0.235737,
-0.105489,
0.933410,
-0.330482,
0.476005,
1.516253,
1.217389,
0.377778,
-0.315058,
1.269402,
-0.580783,
-0.115229,
-1.820613,
0.713071,
0.034584,
0.677682,
0.614161,
1.050193,
0.905503,
1.286665,
0.323952,
0.239894,
-0.637345,
-0.017664,
0.970197,
0.313307,
0.369590,
-0.240372,
0.953988,
0.966778,
-0.194643,
0.341494,
0.514211,
0.299814,
1.550176,
0.007712,
-0.663173,
0.735844,
0.706426,
0.007975,
1.609276,
0.461137,
0.787779,
0.094686,
0.493888,
0.430923,
0.660649,
0.306829,
-0.163481,
0.275423,
0.713080,
-0.260866,
0.767626,
0.894192,
-0.386263,
1.943131,
-0.990035,
0.726743,
0.652497,
1.465813,
-2.134104,
1.172348,
0.920728,
-0.499945,
-1.499544,
-0.973700,
0.491219,
1.269172,
0.413419,
0.092236,
1.931681,
-0.845276,
0.252198,
1.041378,
-0.638929,
0.336984,
0.781465,
0.714820,
0.213225,
0.821099,
0.218902,
-0.501117,
0.659865,
0.836803,
0.918582,
0.879375,
-0.512500,
0.752789,
0.931478,
-0.169894,
1.570442,
-1.093177,
1.009322,
0.380262,
-0.221616,
0.851493,
0.322609,
0.345168,
-0.113144,
0.932341,
0.917755,
1.355560,
0.104265,
0.869049,
-0.328567,
0.875222,
0.681810,
-0.006137,
-0.268759,
0.617368,
0.251931,
-0.127592,
0.598787,
0.459994,
-0.113683,
-1.017689,
0.165993,
0.814717,
0.704872,
0.140929,
-0.112533,
1.113633,
1.320213,
0.737611,
0.135028,
-0.154778,
-0.366122,
0.603154,
0.581315,
1.582903,
0.509753,
0.289092,
0.452854,
0.564503,
-2.618220,
1.380261,
1.828655,
0.383715,
0.817419,
0.995674,
-0.408491,
0.592969,
1.485436,
-0.391767,
0.435431,
1.359489,
1.371926,
1.278533,
1.922144,
0.789957,
1.319174,
0.655032,
-0.037766,
0.247901,
0.643957,
-0.006337,
0.217854,
1.183620,
0.177763,
-0.713147,
-0.679756,
0.658358,
1.132633,
0.462102,
0.132888,
0.112364,
0.581339,
-0.149266,
0.368174,
0.347521,
1.694165,
-1.555200,
0.184018,
0.462143,
0.854993,
0.984982,
1.018130,
-1.427157,
0.776048,
